digraph Tree {
node [shape=box, style="filled, rounded", color="black", fontname="helvetica"] ;
edge [fontname="helvetica"] ;
0 [label=<hour_of_day &le; 4.5<br/>gini = 0.398<br/>samples = 1659<br/>value = [1205, 454]<br/>class = 0>, fillcolor="#efb084"] ;
1 [label=<gini = 0.0<br/>samples = 1205<br/>value = [1205, 0]<br/>class = 0>, fillcolor="#e58139"] ;
0 -> 1 [labeldistance=2.5, labelangle=45, headlabel="True"] ;
2 [label=<gini = 0.0<br/>samples = 454<br/>value = [0, 454]<br/>class = 1>, fillcolor="#399de5"] ;
0 -> 2 [labeldistance=2.5, labelangle=-45, headlabel="False"] ;
}
